<?xml version="1.0"?>
<opencv_storage>
<cascade>
  <stageType>BOOST</stageType>
  <featureType>HAAR</featureType>
  <height>48</height>
  <width>20</width>
  <stageParams>
    <boostType>GAB</boostType>
    <minHitRate>9.9500000476837158e-01</minHitRate>
    <maxFalseAlarm>5.0000000000000000e-01</maxFalseAlarm>
    <weightTrimRate>9.4999998807907104e-01</weightTrimRate>
    <maxDepth>1</maxDepth>
    <maxWeakCount>100</maxWeakCount></stageParams>
  <featureParams>
    <maxCatCount>0</maxCatCount>
    <featSize>1</featSize>
    <mode>BASIC</mode></featureParams>
  <stageNum>4</stageNum>
  <stages>
    <!-- stage 0 -->
    <_>
      <maxWeakCount>1</maxWeakCount>
      <stageThreshold>1.</stageThreshold>
      <weakClassifiers>
        <_>
          <internalNodes>
            0 -1 2 -2.0660626888275146e-01</internalNodes>
          <leafValues>
            1. -1.</leafValues></_></weakClassifiers></_>
    <!-- stage 1 -->
    <_>
      <maxWeakCount>1</maxWeakCount>
      <stageThreshold>1.</stageThreshold>
      <weakClassifiers>
        <_>
          <internalNodes>
            0 -1 0 -1.8564409017562866e-01</internalNodes>
          <leafValues>
            1. -1.</leafValues></_></weakClassifiers></_>
    <!-- stage 2 -->
    <_>
      <maxWeakCount>2</maxWeakCount>
      <stageThreshold>-6.7998883314430714e-03</stageThreshold>
      <weakClassifiers>
        <_>
          <internalNodes>
            0 -1 4 -4.1885148733854294e-02</internalNodes>
          <leafValues>
            1. -9.9433428049087524e-01</leafValues></_>
        <_>
          <internalNodes>
            0 -1 5 2.6009313762187958e-02</internalNodes>
          <leafValues>
            -9.8314577341079712e-01 9.8753440380096436e-01</leafValues></_></weakClassifiers></_>
    <!-- stage 3 -->
    <_>
      <maxWeakCount>3</maxWeakCount>
      <stageThreshold>-9.5366805791854858e-01</stageThreshold>
      <weakClassifiers>
        <_>
          <internalNodes>
            0 -1 1 6.6484078764915466e-02</internalNodes>
          <leafValues>
            -9.9433428049087524e-01 1.</leafValues></_>
        <_>
          <internalNodes>
            0 -1 1 6.6484078764915466e-02</internalNodes>
          <leafValues>
            -9.5933377742767334e-01 1.</leafValues></_>
        <_>
          <internalNodes>
            0 -1 3 4.1116479784250259e-02</internalNodes>
          <leafValues>
            -9.4718670845031738e-01 1.</leafValues></_></weakClassifiers></_></stages>
  <features>
    <_>
      <rects>
        <_>
          0 1 18 20 -1.</_>
        <_>
          6 1 6 20 3.</_></rects>
      <tilted>0</tilted></_>
    <_>
      <rects>
        <_>
          0 12 13 9 -1.</_>
        <_>
          0 15 13 3 3.</_></rects>
      <tilted>0</tilted></_>
    <_>
      <rects>
        <_>
          2 0 13 18 -1.</_>
        <_>
          2 6 13 6 3.</_></rects>
      <tilted>0</tilted></_>
    <_>
      <rects>
        <_>
          2 15 10 12 -1.</_>
        <_>
          2 15 5 6 2.</_>
        <_>
          7 21 5 6 2.</_></rects>
      <tilted>0</tilted></_>
    <_>
      <rects>
        <_>
          2 24 13 9 -1.</_>
        <_>
          2 27 13 3 3.</_></rects>
      <tilted>0</tilted></_>
    <_>
      <rects>
        <_>
          8 23 10 10 -1.</_>
        <_>
          8 23 5 5 2.</_>
        <_>
          13 28 5 5 2.</_></rects>
      <tilted>0</tilted></_></features></cascade>
</opencv_storage>
